digraph Tree {
node [shape=box] ;
0 [label="Sex <= 0.5\ngini = 0.4765\nsamples = 623\nvalue = [379, 244]"] ;
1 [label="Pclass <= 2.5\ngini = 0.375\nsamples = 224\nvalue = [56, 168]"] ;
0 -> 1 [labeldistance=2.5, labelangle=45, headlabel="True"] ;
2 [label="Age <= 2.5\ngini = 0.1057\nsamples = 125\nvalue = [7, 118]"] ;
1 -> 2 ;
3 [label="gini = 0.5\nsamples = 2\nvalue = [1, 1]"] ;
2 -> 3 ;
4 [label="Fare <= 26.125\ngini = 0.0928\nsamples = 123\nvalue = [6, 117]"] ;
2 -> 4 ;
5 [label="Age <= 56.0\ngini = 0.1938\nsamples = 46\nvalue = [5, 41]"] ;
4 -> 5 ;
6 [label="Fare <= 25.9646\ngini = 0.162\nsamples = 45\nvalue = [4, 41]"] ;
5 -> 6 ;
7 [label="Fare <= 13.25\ngini = 0.1107\nsamples = 34\nvalue = [2, 32]"] ;
6 -> 7 ;
8 [label="Fare <= 12.825\ngini = 0.1884\nsamples = 19\nvalue = [2, 17]"] ;
7 -> 8 ;
9 [label="gini = 0.0\nsamples = 8\nvalue = [0, 8]"] ;
8 -> 9 ;
10 [label="gini = 0.2975\nsamples = 11\nvalue = [2, 9]"] ;
8 -> 10 ;
11 [label="gini = 0.0\nsamples = 15\nvalue = [0, 15]"] ;
7 -> 11 ;
12 [label="gini = 0.2975\nsamples = 11\nvalue = [2, 9]"] ;
6 -> 12 ;
13 [label="gini = 0.0\nsamples = 1\nvalue = [1, 0]"] ;
5 -> 13 ;
14 [label="Fare <= 149.0354\ngini = 0.0256\nsamples = 77\nvalue = [1, 76]"] ;
4 -> 14 ;
15 [label="gini = 0.0\nsamples = 65\nvalue = [0, 65]"] ;
14 -> 15 ;
16 [label="Fare <= 152.5063\ngini = 0.1528\nsamples = 12\nvalue = [1, 11]"] ;
14 -> 16 ;
17 [label="gini = 0.0\nsamples = 1\nvalue = [1, 0]"] ;
16 -> 17 ;
18 [label="gini = 0.0\nsamples = 11\nvalue = [0, 11]"] ;
16 -> 18 ;
19 [label="Fare <= 22.9042\ngini = 0.4999\nsamples = 99\nvalue = [49, 50]"] ;
1 -> 19 ;
20 [label="Age <= 36.0\ngini = 0.482\nsamples = 79\nvalue = [32, 47]"] ;
19 -> 20 ;
21 [label="Age <= 2.0\ngini = 0.4704\nsamples = 74\nvalue = [28, 46]"] ;
20 -> 21 ;
22 [label="gini = 0.0\nsamples = 4\nvalue = [0, 4]"] ;
21 -> 22 ;
23 [label="Fare <= 8.0396\ngini = 0.48\nsamples = 70\nvalue = [28, 42]"] ;
21 -> 23 ;
24 [label="Age <= 29.25\ngini = 0.4224\nsamples = 33\nvalue = [10, 23]"] ;
23 -> 24 ;
25 [label="Fare <= 6.9875\ngini = 0.3829\nsamples = 31\nvalue = [8, 23]"] ;
24 -> 25 ;
26 [label="gini = 0.0\nsamples = 1\nvalue = [1, 0]"] ;
25 -> 26 ;
27 [label="Fare <= 7.5625\ngini = 0.3578\nsamples = 30\nvalue = [7, 23]"] ;
25 -> 27 ;
28 [label="gini = 0.0\nsamples = 5\nvalue = [0, 5]"] ;
27 -> 28 ;
29 [label="Age <= 14.5\ngini = 0.4032\nsamples = 25\nvalue = [7, 18]"] ;
27 -> 29 ;
30 [label="gini = 0.0\nsamples = 1\nvalue = [1, 0]"] ;
29 -> 30 ;
31 [label="Fare <= 7.6396\ngini = 0.375\nsamples = 24\nvalue = [6, 18]"] ;
29 -> 31 ;
32 [label="gini = 0.0\nsamples = 1\nvalue = [1, 0]"] ;
31 -> 32 ;
33 [label="Fare <= 7.8021\ngini = 0.3403\nsamples = 23\nvalue = [5, 18]"] ;
31 -> 33 ;
34 [label="Fare <= 7.7625\ngini = 0.426\nsamples = 13\nvalue = [4, 9]"] ;
33 -> 34 ;
35 [label="gini = 0.2975\nsamples = 11\nvalue = [2, 9]"] ;
34 -> 35 ;
36 [label="gini = 0.0\nsamples = 2\nvalue = [2, 0]"] ;
34 -> 36 ;
37 [label="gini = 0.18\nsamples = 10\nvalue = [1, 9]"] ;
33 -> 37 ;
38 [label="gini = 0.0\nsamples = 2\nvalue = [2, 0]"] ;
24 -> 38 ;
39 [label="Fare <= 10.7979\ngini = 0.4996\nsamples = 37\nvalue = [18, 19]"] ;
23 -> 39 ;
40 [label="gini = 0.2188\nsamples = 8\nvalue = [7, 1]"] ;
39 -> 40 ;
41 [label="Age <= 21.0\ngini = 0.4709\nsamples = 29\nvalue = [11, 18]"] ;
39 -> 41 ;
42 [label="gini = 0.4628\nsamples = 11\nvalue = [7, 4]"] ;
41 -> 42 ;
43 [label="Fare <= 17.6791\ngini = 0.3457\nsamples = 18\nvalue = [4, 14]"] ;
41 -> 43 ;
44 [label="Fare <= 13.4667\ngini = 0.4082\nsamples = 14\nvalue = [4, 10]"] ;
43 -> 44 ;
45 [label="gini = 0.0\nsamples = 3\nvalue = [0, 3]"] ;
44 -> 45 ;
46 [label="gini = 0.4628\nsamples = 11\nvalue = [4, 7]"] ;
44 -> 46 ;
47 [label="gini = 0.0\nsamples = 4\nvalue = [0, 4]"] ;
43 -> 47 ;
48 [label="gini = 0.32\nsamples = 5\nvalue = [4, 1]"] ;
20 -> 48 ;
49 [label="Fare <= 32.8812\ngini = 0.255\nsamples = 20\nvalue = [17, 3]"] ;
19 -> 49 ;
50 [label="gini = 0.3967\nsamples = 11\nvalue = [8, 3]"] ;
49 -> 50 ;
51 [label="gini = 0.0\nsamples = 9\nvalue = [9, 0]"] ;
49 -> 51 ;
52 [label="Age <= 0.96\ngini = 0.3084\nsamples = 399\nvalue = [323, 76]"] ;
0 -> 52 [labeldistance=2.5, labelangle=-45, headlabel="False"] ;
53 [label="gini = 0.0\nsamples = 4\nvalue = [0, 4]"] ;
52 -> 53 ;
54 [label="Pclass <= 1.5\ngini = 0.2981\nsamples = 395\nvalue = [323, 72]"] ;
52 -> 54 ;
55 [label="Age <= 51.5\ngini = 0.4444\nsamples = 87\nvalue = [58, 29]"] ;
54 -> 55 ;
56 [label="Fare <= 26.1437\ngini = 0.4835\nsamples = 66\nvalue = [39, 27]"] ;
55 -> 56 ;
57 [label="gini = 0.0\nsamples = 7\nvalue = [7, 0]"] ;
56 -> 57 ;
58 [label="Fare <= 27.1354\ngini = 0.4964\nsamples = 59\nvalue = [32, 27]"] ;
56 -> 58 ;
59 [label="gini = 0.18\nsamples = 10\nvalue = [1, 9]"] ;
58 -> 59 ;
60 [label="Age <= 17.5\ngini = 0.4648\nsamples = 49\nvalue = [31, 18]"] ;
58 -> 60 ;
61 [label="gini = 0.0\nsamples = 3\nvalue = [0, 3]"] ;
60 -> 61 ;
62 [label="Fare <= 387.6646\ngini = 0.4395\nsamples = 46\nvalue = [31, 15]"] ;
60 -> 62 ;
63 [label="Fare <= 99.45\ngini = 0.4163\nsamples = 44\nvalue = [31, 13]"] ;
62 -> 63 ;
64 [label="Age <= 27.5\ngini = 0.4501\nsamples = 38\nvalue = [25, 13]"] ;
63 -> 64 ;
65 [label="gini = 0.4082\nsamples = 7\nvalue = [2, 5]"] ;
64 -> 65 ;
66 [label="Fare <= 85.6375\ngini = 0.3829\nsamples = 31\nvalue = [23, 8]"] ;
64 -> 66 ;
67 [label="Fare <= 37.0\ngini = 0.3367\nsamples = 28\nvalue = [22, 6]"] ;
66 -> 67 ;
68 [label="Fare <= 29.85\ngini = 0.4592\nsamples = 14\nvalue = [9, 5]"] ;
67 -> 68 ;
69 [label="gini = 0.0\nsamples = 5\nvalue = [5, 0]"] ;
68 -> 69 ;
70 [label="gini = 0.4938\nsamples = 9\nvalue = [4, 5]"] ;
68 -> 70 ;
71 [label="SibSp <= 0.5\ngini = 0.1327\nsamples = 14\nvalue = [13, 1]"] ;
67 -> 71 ;
72 [label="gini = 0.0\nsamples = 8\nvalue = [8, 0]"] ;
71 -> 72 ;
73 [label="gini = 0.2778\nsamples = 6\nvalue = [5, 1]"] ;
71 -> 73 ;
74 [label="gini = 0.4444\nsamples = 3\nvalue = [1, 2]"] ;
66 -> 74 ;
75 [label="gini = 0.0\nsamples = 6\nvalue = [6, 0]"] ;
63 -> 75 ;
76 [label="gini = 0.0\nsamples = 2\nvalue = [0, 2]"] ;
62 -> 76 ;
77 [label="Age <= 75.5\ngini = 0.1723\nsamples = 21\nvalue = [19, 2]"] ;
55 -> 77 ;
78 [label="Age <= 57.0\ngini = 0.095\nsamples = 20\nvalue = [19, 1]"] ;
77 -> 78 ;
79 [label="gini = 0.2449\nsamples = 7\nvalue = [6, 1]"] ;
78 -> 79 ;
80 [label="gini = 0.0\nsamples = 13\nvalue = [13, 0]"] ;
78 -> 80 ;
81 [label="gini = 0.0\nsamples = 1\nvalue = [0, 1]"] ;
77 -> 81 ;
82 [label="Fare <= 7.9104\ngini = 0.2402\nsamples = 308\nvalue = [265, 43]"] ;
54 -> 82 ;
83 [label="Fare <= 7.8646\ngini = 0.1398\nsamples = 119\nvalue = [110, 9]"] ;
82 -> 83 ;
84 [label="Age <= 32.5\ngini = 0.1715\nsamples = 95\nvalue = [86, 9]"] ;
83 -> 84 ;
85 [label="Age <= 31.5\ngini = 0.2088\nsamples = 76\nvalue = [67, 9]"] ;
84 -> 85 ;
86 [label="SibSp <= 0.5\ngini = 0.1928\nsamples = 74\nvalue = [66, 8]"] ;
85 -> 86 ;
87 [label="Age <= 27.5\ngini = 0.2159\nsamples = 65\nvalue = [57, 8]"] ;
86 -> 87 ;
88 [label="Age <= 26.5\ngini = 0.2854\nsamples = 29\nvalue = [24, 5]"] ;
87 -> 88 ;
89 [label="Fare <= 2.0062\ngini = 0.2449\nsamples = 28\nvalue = [24, 4]"] ;
88 -> 89 ;
90 [label="gini = 0.5\nsamples = 2\nvalue = [1, 1]"] ;
89 -> 90 ;
91 [label="Age <= 22.75\ngini = 0.2041\nsamples = 26\nvalue = [23, 3]"] ;
89 -> 91 ;
92 [label="Fare <= 7.2396\ngini = 0.3047\nsamples = 16\nvalue = [13, 3]"] ;
91 -> 92 ;
93 [label="gini = 0.48\nsamples = 5\nvalue = [3, 2]"] ;
92 -> 93 ;
94 [label="gini = 0.1653\nsamples = 11\nvalue = [10, 1]"] ;
92 -> 94 ;
95 [label="gini = 0.0\nsamples = 10\nvalue = [10, 0]"] ;
91 -> 95 ;
96 [label="gini = 0.0\nsamples = 1\nvalue = [0, 1]"] ;
88 -> 96 ;
97 [label="Fare <= 7.7438\ngini = 0.1528\nsamples = 36\nvalue = [33, 3]"] ;
87 -> 97 ;
98 [label="gini = 0.0\nsamples = 22\nvalue = [22, 0]"] ;
97 -> 98 ;
99 [label="Age <= 28.5\ngini = 0.3367\nsamples = 14\nvalue = [11, 3]"] ;
97 -> 99 ;
100 [label="gini = 0.2975\nsamples = 11\nvalue = [9, 2]"] ;
99 -> 100 ;
101 [label="gini = 0.4444\nsamples = 3\nvalue = [2, 1]"] ;
99 -> 101 ;
102 [label="gini = 0.0\nsamples = 9\nvalue = [9, 0]"] ;
86 -> 102 ;
103 [label="gini = 0.5\nsamples = 2\nvalue = [1, 1]"] ;
85 -> 103 ;
104 [label="gini = 0.0\nsamples = 19\nvalue = [19, 0]"] ;
84 -> 104 ;
105 [label="gini = 0.0\nsamples = 24\nvalue = [24, 0]"] ;
83 -> 105 ;
106 [label="Fare <= 7.9875\ngini = 0.2951\nsamples = 189\nvalue = [155, 34]"] ;
82 -> 106 ;
107 [label="gini = 0.4082\nsamples = 7\nvalue = [2, 5]"] ;
106 -> 107 ;
108 [label="SibSp <= 2.5\ngini = 0.2679\nsamples = 182\nvalue = [153, 29]"] ;
106 -> 108 ;
109 [label="Age <= 10.0\ngini = 0.2954\nsamples = 161\nvalue = [132, 29]"] ;
108 -> 109 ;
110 [label="gini = 0.0\nsamples = 5\nvalue = [0, 5]"] ;
109 -> 110 ;
111 [label="Fare <= 49.0375\ngini = 0.2604\nsamples = 156\nvalue = [132, 24]"] ;
109 -> 111 ;
112 [label="Age <= 32.25\ngini = 0.2337\nsamples = 148\nvalue = [128, 20]"] ;
111 -> 112 ;
113 [label="Age <= 31.5\ngini = 0.2825\nsamples = 94\nvalue = [78, 16]"] ;
112 -> 113 ;
114 [label="Fare <= 23.35\ngini = 0.2604\nsamples = 91\nvalue = [77, 14]"] ;
113 -> 114 ;
115 [label="Fare <= 22.8875\ngini = 0.2887\nsamples = 80\nvalue = [66, 14]"] ;
114 -> 115 ;
116 [label="Fare <= 15.1479\ngini = 0.275\nsamples = 79\nvalue = [66, 13]"] ;
115 -> 116 ;
117 [label="Age <= 14.0\ngini = 0.2355\nsamples = 66\nvalue = [57, 9]"] ;
116 -> 117 ;
118 [label="gini = 0.0\nsamples = 1\nvalue = [0, 1]"] ;
117 -> 118 ;
119 [label="Age <= 19.5\ngini = 0.2159\nsamples = 65\nvalue = [57, 8]"] ;
117 -> 119 ;
120 [label="Fare <= 8.3563\ngini = 0.375\nsamples = 12\nvalue = [9, 3]"] ;
119 -> 120 ;
121 [label="gini = 0.4444\nsamples = 3\nvalue = [1, 2]"] ;
120 -> 121 ;
122 [label="gini = 0.1975\nsamples = 9\nvalue = [8, 1]"] ;
120 -> 122 ;
123 [label="Age <= 26.5\ngini = 0.1709\nsamples = 53\nvalue = [48, 5]"] ;
119 -> 123 ;
124 [label="gini = 0.0\nsamples = 24\nvalue = [24, 0]"] ;
123 -> 124 ;
125 [label="Fare <= 8.0813\ngini = 0.2854\nsamples = 29\nvalue = [24, 5]"] ;
123 -> 125 ;
126 [label="gini = 0.0\nsamples = 8\nvalue = [8, 0]"] ;
125 -> 126 ;
127 [label="Fare <= 8.2854\ngini = 0.3628\nsamples = 21\nvalue = [16, 5]"] ;
125 -> 127 ;
128 [label="gini = 0.0\nsamples = 1\nvalue = [0, 1]"] ;
127 -> 128 ;
129 [label="Fare <= 10.0\ngini = 0.32\nsamples = 20\nvalue = [16, 4]"] ;
127 -> 129 ;
130 [label="gini = 0.48\nsamples = 5\nvalue = [3, 2]"] ;
129 -> 130 ;
131 [label="Age <= 28.5\ngini = 0.2311\nsamples = 15\nvalue = [13, 2]"] ;
129 -> 131 ;
132 [label="gini = 0.3457\nsamples = 9\nvalue = [7, 2]"] ;
131 -> 132 ;
133 [label="gini = 0.0\nsamples = 6\nvalue = [6, 0]"] ;
131 -> 133 ;
134 [label="Fare <= 15.3729\ngini = 0.426\nsamples = 13\nvalue = [9, 4]"] ;
116 -> 134 ;
135 [label="gini = 0.0\nsamples = 2\nvalue = [0, 2]"] ;
134 -> 135 ;
136 [label="gini = 0.2975\nsamples = 11\nvalue = [9, 2]"] ;
134 -> 136 ;
137 [label="gini = 0.0\nsamples = 1\nvalue = [0, 1]"] ;
115 -> 137 ;
138 [label="gini = 0.0\nsamples = 11\nvalue = [11, 0]"] ;
114 -> 138 ;
139 [label="gini = 0.4444\nsamples = 3\nvalue = [1, 2]"] ;
113 -> 139 ;
140 [label="Fare <= 13.25\ngini = 0.1372\nsamples = 54\nvalue = [50, 4]"] ;
112 -> 140 ;
141 [label="Age <= 59.5\ngini = 0.2311\nsamples = 30\nvalue = [26, 4]"] ;
140 -> 141 ;
142 [label="Fare <= 12.7625\ngini = 0.1975\nsamples = 27\nvalue = [24, 3]"] ;
141 -> 142 ;
143 [label="Age <= 44.5\ngini = 0.1049\nsamples = 18\nvalue = [17, 1]"] ;
142 -> 143 ;
144 [label="gini = 0.0\nsamples = 12\nvalue = [12, 0]"] ;
143 -> 144 ;
145 [label="gini = 0.2778\nsamples = 6\nvalue = [5, 1]"] ;
143 -> 145 ;
146 [label="gini = 0.3457\nsamples = 9\nvalue = [7, 2]"] ;
142 -> 146 ;
147 [label="gini = 0.4444\nsamples = 3\nvalue = [2, 1]"] ;
141 -> 147 ;
148 [label="gini = 0.0\nsamples = 24\nvalue = [24, 0]"] ;
140 -> 148 ;
149 [label="gini = 0.5\nsamples = 8\nvalue = [4, 4]"] ;
111 -> 149 ;
150 [label="gini = 0.0\nsamples = 21\nvalue = [21, 0]"] ;
108 -> 150 ;
}